<?xml version="1.0"?>
<!--

| Md Arifur Rahman
| Email: arif.aust.eng@gmail.com
| Master in Automotive Software Engineering
| TU Chemnitz
| 09126,Chemnitz
| Germany

<!-- -->



<opencv_storage>
<cascade>
  <stageType>BOOST</stageType>
  <featureType>HAAR</featureType>
  <height>35</height>
  <width>17</width>
  <stageParams>
    <boostType>GAB</boostType>
    <minHitRate>9.9500000476837158e-01</minHitRate>
    <maxFalseAlarm>5.0000000000000000e-01</maxFalseAlarm>
    <weightTrimRate>9.4999998807907104e-01</weightTrimRate>
    <maxDepth>1</maxDepth>
    <maxWeakCount>100</maxWeakCount></stageParams>
  <featureParams>
    <maxCatCount>0</maxCatCount>
    <featSize>1</featSize>
    <mode>BASIC</mode></featureParams>
  <stageNum>20</stageNum>
  <stages>
    <!-- stage 0 -->
    <_>
      <maxWeakCount>6</maxWeakCount>
      <stageThreshold>-2.2102334499359131e+00</stageThreshold>
      <weakClassifiers>
        <_>
          <internalNodes>
            0 -1 74 -2.1300190687179565e-01</internalNodes>
          <leafValues>
            6.6060608625411987e-01 -7.9669028520584106e-01</leafValues></_>
        <_>
          <internalNodes>
            0 -1 487 2.6013822207460180e-05</internalNodes>
          <leafValues>
            -6.9639909267425537e-01 4.2349290847778320e-01</leafValues></_>
        <_>
          <internalNodes>
            0 -1 430 -1.6116256592795253e-03</internalNodes>
          <leafValues>
            4.6287238597869873e-01 -6.0187834501266479e-01</leafValues></_>
        <_>
          <internalNodes>
            0 -1 455 6.1747436411678791e-03</internalNodes>
          <leafValues>
            -4.2221400141716003e-01 5.7085573673248291e-01</leafValues></_>
        <_>
          <internalNodes>
            0 -1 104 -2.3369306290987879e-05</internalNodes>
          <leafValues>
            4.5838597416877747e-01 -4.3169713020324707e-01</leafValues></_>
        <_>
          <internalNodes>
            0 -1 166 -4.6212431043386459e-03</internalNodes>
          <leafValues>
            5.3350973129272461e-01 -2.5442433357238770e-01</leafValues></_></weakClassifiers></_>
    <!-- stage 1 -->
    <_>
      <maxWeakCount>4</maxWeakCount>
      <stageThreshold>-1.2380998134613037e+00</stageThreshold>
      <weakClassifiers>
        <_>
          <internalNodes>
            0 -1 62 -2.2337513655656949e-05</internalNodes>
          <leafValues>
            3.7272727489471436e-01 -8.2799702882766724e-01</leafValues></_>
        <_>
          <internalNodes>
            0 -1 160 -2.6128751414944418e-05</internalNodes>
          <leafValues>
            6.9389182329177856e-01 -6.2451612949371338e-01</leafValues></_>
        <_>
          <internalNodes>
            0 -1 333 2.2757591068511829e-05</internalNodes>
          <leafValues>
            -5.1754868030548096e-01 7.9563951492309570e-01</leafValues></_>
        <_>
          <internalNodes>
            0 -1 204 -2.4270782887469977e-05</internalNodes>
          <leafValues>
            7.5973850488662720e-01 -4.6876221895217896e-01</leafValues></_></weakClassifiers></_>
    <!-- stage 2 -->
    <_>
      <maxWeakCount>6</maxWeakCount>
      <stageThreshold>-2.0507640838623047e+00</stageThreshold>
      <weakClassifiers>
        <_>
          <internalNodes>
            0 -1 378 3.8796555600129068e-05</internalNodes>
          <leafValues>
            -7.9446065425872803e-01 3.5124760866165161e-01</leafValues></_>
        <_>
          <internalNodes>
            0 -1 481 2.4488459530402906e-05</internalNodes>
          <leafValues>
            -6.3452106714248657e-01 5.1076060533523560e-01</leafValues></_>
        <_>
          <internalNodes>
            0 -1 458 2.4110147933242843e-05</internalNodes>
          <leafValues>
            -5.1082813739776611e-01 6.3514220714569092e-01</leafValues></_>
        <_>
          <internalNodes>
            0 -1 501 2.4546745407860726e-05</internalNodes>
          <leafValues>
            -4.9692079424858093e-01 5.8114796876907349e-01</leafValues></_>
        <_>
          <internalNodes>
            0 -1 268 -3.6849451134912670e-05</internalNodes>
          <leafValues>
            6.6793739795684814e-01 -4.4250980019569397e-01</leafValues></_>
        <_>
          <internalNodes>
            0 -1 378 -2.5090223061852157e-05</internalNodes>
          <leafValues>
            7.5924479961395264e-01 -3.1749403476715088e-01</leafValues></_></weakClassifiers></_>
    <!-- stage 3 -->
    <_>
      <maxWeakCount>11</maxWeakCount>
      <stageThreshold>-1.7789696455001831e+00</stageThreshold>
      <weakClassifiers>
        <_>
          <internalNodes>
            0 -1 22 -1.2791991233825684e-01</internalNodes>
          <leafValues>
            4.7826087474822998e-01 -7.8646194934844971e-01</leafValues></_>
        <_>
          <internalNodes>
            0 -1 445 7.6395660638809204e-02</internalNodes>
          <leafValues>
            -4.9211484193801880e-01 5.0360119342803955e-01</leafValues></_>
        <_>
          <internalNodes>
            0 -1 90 2.9691185802221298e-02</internalNodes>
          <leafValues>
            -4.2756769061088562e-01 3.7300601601600647e-01</leafValues></_>
        <_>
          <internalNodes>
            0 -1 138 2.2798640202381648e-05</internalNodes>
          <leafValues>
            -3.2167017459869385e-01 3.5557198524475098e-01</leafValues></_>
        <_>
          <internalNodes>
            0 -1 73 -3.0396338552236557e-03</internalNodes>
          <leafValues>
            4.6293842792510986e-01 -2.2757177054882050e-01</leafValues></_>
        <_>
          <internalNodes>
            0 -1 25 -9.9241137504577637e-02</internalNodes>
          <leafValues>
            7.3386174440383911e-01 -8.4986291825771332e-02</leafValues></_>
        <_>
          <internalNodes>
            0 -1 150 -2.1808052062988281e-01</internalNodes>
          <leafValues>
            5.6548053026199341e-01 -1.6290682554244995e-01</leafValues></_>
        <_>
          <internalNodes>
            0 -1 227 -4.6314392238855362e-03</internalNodes>
          <leafValues>
            5.2319109439849854e-01 -2.0748028159141541e-01</leafValues></_>
        <_>
          <internalNodes>
            0 -1 153 3.7442430853843689e-02</internalNodes>
          <leafValues>
            -1.5700790286064148e-01 6.1041700839996338e-01</leafValues></_>
        <_>
          <internalNodes>
            0 -1 489 2.6224610337521881e-05</internalNodes>
          <leafValues>
            -4.0820086002349854e-01 2.4348177015781403e-01</leafValues></_>
        <_>
          <internalNodes>
            0 -1 502 8.7625184096395969e-04</internalNodes>
          <leafValues>
            1.6653065383434296e-01 -7.0420312881469727e-01</leafValues></_></weakClassifiers></_>
    <!-- stage 4 -->
    <_>
      <maxWeakCount>14</maxWeakCount>
      <stageThreshold>-1.9080741405487061e+00</stageThreshold>
      <weakClassifiers>
        <_>
          <internalNodes>
            0 -1 92 -7.7432572841644287e-02</internalNodes>
          <leafValues>
            3.9975398778915405e-01 -7.1947526931762695e-01</leafValues></_>
        <_>
          <internalNodes>
            0 -1 122 1.3118717074394226e-01</internalNodes>
          <leafValues>
            -5.0525778532028198e-01 3.7390571832656860e-01</leafValues></_>
        <_>
          <internalNodes>
            0 -1 32 -3.0342530459165573e-02</internalNodes>
          <leafValues>
            3.8984721899032593e-01 -4.4104295969009399e-01</leafValues></_>
        <_>
          <internalNodes>
            0 -1 61 4.8186691128648818e-04</internalNodes>
          <leafValues>
            1.4889317750930786e-01 -6.7152142524719238e-01</leafValues></_>
        <_>
          <internalNodes>
            0 -1 454 4.7172460705041885e-02</internalNodes>
          <leafValues>
            -2.1068859100341797e-01 4.2644375562667847e-01</leafValues></_>
        <_>
          <internalNodes>
            0 -1 110 1.3210509903728962e-02</internalNodes>
          <leafValues>
            -2.1120129525661469e-01 4.9552318453788757e-01</leafValues></_>
        <_>
          <internalNodes>
            0 -1 182 2.2999760694801807e-03</internalNodes>
          <leafValues>
            -2.4109846353530884e-01 3.4247195720672607e-01</leafValues></_>
        <_>
          <internalNodes>
            0 -1 523 -1.6370871162507683e-04</internalNodes>
          <leafValues>
            -4.8680302500724792e-01 1.7821681499481201e-01</leafValues></_>
        <_>
          <internalNodes>
            0 -1 310 -2.3807431571185589e-03</internalNodes>
          <leafValues>
            3.2865405082702637e-01 -2.3190559446811676e-01</leafValues></_>
        <_>
          <internalNodes>
            0 -1 523 5.8344705030322075e-04</internalNodes>
          <leafValues>
            1.4967912435531616e-01 -5.4061836004257202e-01</leafValues></_>
        <_>
          <internalNodes>
            0 -1 83 -6.3116841018199921e-02</internalNodes>
          <leafValues>
            4.4099771976470947e-01 -1.6806146502494812e-01</leafValues></_>
        <_>
          <internalNodes>
            0 -1 232 -1.4397286809980869e-02</internalNodes>
          <leafValues>
            4.1940903663635254e-01 -1.5802372992038727e-01</leafValues></_>
        <_>
          <internalNodes>
            0 -1 190 -2.0378589630126953e-01</internalNodes>
          <leafValues>
            4.2867198586463928e-01 -1.4534899592399597e-01</leafValues></_>
        <_>
          <internalNodes>
            0 -1 4 5.3930275142192841e-02</internalNodes>
          <leafValues>
            -1.5576171875000000e-01 4.8758313059806824e-01</leafValues></_></weakClassifiers></_>
    <!-- stage 5 -->
    <_>
      <maxWeakCount>18</maxWeakCount>
      <stageThreshold>-1.7752455472946167e+00</stageThreshold>
      <weakClassifiers>
        <_>
          <internalNodes>
            0 -1 399 4.8377268016338348e-02</internalNodes>
          <leafValues>
            -7.9455447196960449e-01 8.2232013344764709e-02</leafValues></_>
        <_>
          <internalNodes>
            0 -1 38 -6.9334417581558228e-02</internalNodes>
          <leafValues>
            3.4977126121520996e-01 -4.6885934472084045e-01</leafValues></_>
        <_>
          <internalNodes>
            0 -1 239 1.0451270639896393e-01</internalNodes>
          <leafValues>
            -3.5950517654418945e-01 3.2279503345489502e-01</leafValues></_>
        <_>
          <internalNodes>
            0 -1 140 6.7014144733548164e-03</internalNodes>
          <leafValues>
            -1.9024662673473358e-01 5.0623154640197754e-01</leafValues></_>
        <_>
          <internalNodes>
            0 -1 347 -1.9781408831477165e-02</internalNodes>
          <leafValues>
            5.4291260242462158e-01 -1.0660813748836517e-01</leafValues></_>
        <_>
          <internalNodes>
            0 -1 406 -6.0229455120861530e-03</internalNodes>
          <leafValues>
            5.0685405731201172e-01 -1.5212550759315491e-01</leafValues></_>
        <_>
          <internalNodes>
            0 -1 337 -5.8640548959374428e-03</internalNodes>
          <leafValues>
            4.1039052605628967e-01 -1.9780902564525604e-01</leafValues></_>
        <_>
          <internalNodes>
            0 -1 6 -1.4996018260717392e-02</internalNodes>
          <leafValues>
            4.6494293212890625e-01 -1.2346116453409195e-01</leafValues></_>
        <_>
          <internalNodes>
            0 -1 85 -5.4122827947139740e-02</internalNodes>
          <leafValues>
            4.6934252977371216e-01 -1.8602445721626282e-01</leafValues></_>
        <_>
          <internalNodes>
            0 -1 156 -4.3647009879350662e-03</internalNodes>
          <leafValues>
            4.9446672201156616e-01 -1.1160232871770859e-01</leafValues></_>
        <_>
          <internalNodes>
            0 -1 203 1.0770807042717934e-02</internalNodes>
          <leafValues>
            -1.5325659513473511e-01 3.9774185419082642e-01</leafValues></_>
        <_>
          <internalNodes>
            0 -1 226 -1.2932049110531807e-02</internalNodes>
          <leafValues>
            3.7066608667373657e-01 -1.6110697388648987e-01</leafValues></_>
        <_>
          <internalNodes>
            0 -1 486 -6.5307482145726681e-04</internalNodes>
          <leafValues>
            -4.4340947270393372e-01 1.7025141417980194e-01</leafValues></_>
        <_>
          <internalNodes>
            0 -1 130 6.8639693781733513e-03</internalNodes>
          <leafValues>
            -1.8714454770088196e-01 3.9084315299987793e-01</leafValues></_>
        <_>
          <internalNodes>
            0 -1 141 1.6848550876602530e-04</internalNodes>
          <leafValues>
            1.5931977331638336e-01 -4.7650697827339172e-01</leafValues></_>
        <_>
          <internalNodes>
            0 -1 155 -2.0862971432507038e-03</internalNodes>
          <leafValues>
            2.7840068936347961e-01 -2.0840667188167572e-01</leafValues></_>
        <_>
          <internalNodes>
            0 -1 397 1.3360653538256884e-03</internalNodes>
          <leafValues>
            1.0542118549346924e-01 -5.7427698373794556e-01</leafValues></_>
        <_>
          <internalNodes>
            0 -1 368 -4.3075266294181347e-03</internalNodes>
          <leafValues>
            3.2799309492111206e-01 -1.7578494548797607e-01</leafValues></_></weakClassifiers></_>
    <!-- stage 6 -->
    <_>
      <maxWeakCount>17</maxWeakCount>
      <stageThreshold>-1.5960258245468140e+00</stageThreshold>
      <weakClassifiers>
        <_>
          <internalNodes>
            0 -1 390 1.1006604880094528e-01</internalNodes>
          <leafValues>
            -7.5349426269531250e-01 -2.4561403319239616e-02</leafValues></_>
        <_>
          <internalNodes>
            0 -1 39 -2.9069479554891586e-02</internalNodes>
          <leafValues>
            1.8123428523540497e-01 -5.2506738901138306e-01</leafValues></_>
        <_>
          <internalNodes>
            0 -1 189 -2.5648444890975952e-01</internalNodes>
          <leafValues>
            4.3883064389228821e-01 -2.8206312656402588e-01</leafValues></_>
        <_>
          <internalNodes>
            0 -1 284 1.7043326050043106e-02</internalNodes>
          <leafValues>
            -2.9581362009048462e-01 3.4559333324432373e-01</leafValues></_>
        <_>
          <internalNodes>
            0 -1 33 2.5469997897744179e-02</internalNodes>
          <leafValues>
            -1.1980065703392029e-01 5.2006959915161133e-01</leafValues></_>
        <_>
          <internalNodes>
            0 -1 154 -6.2676435336470604e-03</internalNodes>
          <leafValues>
            3.3590534329414368e-01 -1.8703682720661163e-01</leafValues></_>
        <_>
          <internalNodes>
            0 -1 220 1.5631427522748709e-03</internalNodes>
          <leafValues>
            -2.5251850485801697e-01 2.6739457249641418e-01</leafValues></_>
        <_>
          <internalNodes>
            0 -1 298 5.1385965198278427e-03</internalNodes>
          <leafValues>
            -1.6481047868728638e-01 3.8110035657882690e-01</leafValues></_>
        <_>
          <internalNodes>
            0 -1 351 -1.9373908871784806e-03</internalNodes>
          <leafValues>
            3.4487989544868469e-01 -1.9283151626586914e-01</leafValues></_>
        <_>
          <internalNodes>
            0 -1 253 2.2895827889442444e-02</internalNodes>
          <leafValues>
            -1.1609247326850891e-01 5.2146887779235840e-01</leafValues></_>
        <_>
          <internalNodes>
            0 -1 411 1.8066287040710449e-02</internalNodes>
          <leafValues>
            -2.0347560942173004e-01 4.3369308114051819e-01</leafValues></_>
        <_>
          <internalNodes>
            0 -1 237 -2.0275074057281017e-03</internalNodes>
          <leafValues>
            1.9687116146087646e-01 -3.2907772064208984e-01</leafValues></_>
        <_>
          <internalNodes>
            0 -1 64 -4.2673703865148127e-04</internalNodes>
          <leafValues>
            -5.2551388740539551e-01 1.1208897083997726e-01</leafValues></_>
        <_>
          <internalNodes>
            0 -1 64 3.4873158438131213e-04</internalNodes>
          <leafValues>
            9.2186763882637024e-02 -6.5807497501373291e-01</leafValues></_>
        <_>
          <internalNodes>
            0 -1 381 4.5745924115180969e-02</internalNodes>
          <leafValues>
            -9.6165493130683899e-02 6.6453939676284790e-01</leafValues></_>
        <_>
          <internalNodes>
            0 -1 391 -1.9097202457487583e-03</internalNodes>
          <leafValues>
            3.4925830364227295e-01 -1.6758373379707336e-01</leafValues></_>
        <_>
          <internalNodes>
            0 -1 367 4.3169260025024414e-03</internalNodes>
          <leafValues>
            -1.8922777473926544e-01 2.9682809114456177e-01</leafValues></_></weakClassifiers></_>
    <!-- stage 7 -->
    <_>
      <maxWeakCount>26</maxWeakCount>
      <stageThreshold>-1.7804971933364868e+00</stageThreshold>
      <weakClassifiers>
        <_>
          <internalNodes>
            0 -1 18 -1.7200681567192078e-01</internalNodes>
          <leafValues>
            2.2347629070281982e-01 -6.9379311800003052e-01</leafValues></_>
        <_>
          <internalNodes>
            0 -1 449 5.5056154727935791e-02</internalNodes>
          <leafValues>
            -4.7834625840187073e-01 2.5336182117462158e-01</leafValues></_>
        <_>
          <internalNodes>
            0 -1 111 -4.8913344740867615e-02</internalNodes>
          <leafValues>
            3.2207223773002625e-01 -2.0896419882774353e-01</leafValues></_>
        <_>
          <internalNodes>
            0 -1 396 4.1807740926742554e-02</internalNodes>
          <leafValues>
            -1.4457921683788300e-01 4.4244381785392761e-01</leafValues></_>
        <_>
          <internalNodes>
            0 -1 282 1.0749051347374916e-02</internalNodes>
          <leafValues>
            -1.4300794899463654e-01 4.4910585880279541e-01</leafValues></_>
        <_>
          <internalNodes>
            0 -1 275 -3.3280421048402786e-02</internalNodes>
          <leafValues>
            4.7166320681571960e-01 -1.5989284217357635e-01</leafValues></_>
        <_>
          <internalNodes>
            0 -1 107 1.4368543401360512e-02</internalNodes>
          <leafValues>
            1.4567650854587555e-01 -5.8808606863021851e-01</leafValues></_>
        <_>
          <internalNodes>
            0 -1 105 2.2228497255127877e-04</internalNodes>
          <leafValues>
            7.6585419476032257e-02 -4.9438771605491638e-01</leafValues></_>
        <_>
          <internalNodes>
            0 -1 180 -5.2452199161052704e-03</internalNodes>
          <leafValues>
            3.4788206219673157e-01 -1.4792875945568085e-01</leafValues></_>
        <_>
          <internalNodes>
            0 -1 168 -3.4898113459348679e-02</internalNodes>
          <leafValues>
            4.5846769213676453e-01 -1.2635688483715057e-01</leafValues></_>
        <_>
          <internalNodes>
            0 -1 340 1.2179741170257330e-03</internalNodes>
          <leafValues>
            1.0140767693519592e-01 -6.8703579902648926e-01</leafValues></_>
        <_>
          <internalNodes>
            0 -1 292 5.8989753015339375e-03</internalNodes>
          <leafValues>
            -1.2483061105012894e-01 5.5956435203552246e-01</leafValues></_>
        <_>
          <internalNodes>
            0 -1 490 1.2288934085518122e-03</internalNodes>
          <leafValues>
            6.8543024361133575e-02 -7.5141805410385132e-01</leafValues></_>
        <_>
          <internalNodes>
            0 -1 211 4.3633915483951569e-03</internalNodes>
          <leafValues>
            -1.3730487227439880e-01 4.1034001111984253e-01</leafValues></_>
        <_>
          <internalNodes>
            0 -1 210 -1.6354303807020187e-02</internalNodes>
          <leafValues>
            4.0101468563079834e-01 -1.2583583593368530e-01</leafValues></_>
        <_>
          <internalNodes>
            0 -1 230 1.4304794371128082e-01</internalNodes>
          <leafValues>
            -9.2731289565563202e-02 5.9257161617279053e-01</leafValues></_>
        <_>
          <internalNodes>
            0 -1 309 -1.6479857265949249e-02</internalNodes>
          <leafValues>
            2.1508495509624481e-01 -3.2148587703704834e-01</leafValues></_>
        <_>
          <internalNodes>
            0 -1 507 1.7375635798089206e-04</internalNodes>
          <leafValues>
            1.4123278856277466e-01 -3.6230695247650146e-01</leafValues></_>
        <_>
          <internalNodes>
            0 -1 8 2.4025806784629822e-01</internalNodes>
          <leafValues>
            -7.2760798037052155e-02 7.6262873411178589e-01</leafValues></_>
        <_>
          <internalNodes>
            0 -1 364 1.5583860222250223e-03</internalNodes>
          <leafValues>
            1.0705590993165970e-01 -5.5289292335510254e-01</leafValues></_>
        <_>
          <internalNodes>
            0 -1 35 -1.8717024475336075e-02</internalNodes>
          <leafValues>
            2.4602662026882172e-01 -1.9443193078041077e-01</leafValues></_>
        <_>
          <internalNodes>
            0 -1 68 -1.1875187978148460e-02</internalNodes>
          <leafValues>
            -4.8900780081748962e-01 1.0534273087978363e-01</leafValues></_>
        <_>
          <internalNodes>
            0 -1 261 -4.2437091469764709e-03</internalNodes>
          <leafValues>
            3.5903215408325195e-01 -1.3075669109821320e-01</leafValues></_>
        <_>
          <internalNodes>
            0 -1 262 1.1289939284324646e-03</internalNodes>
          <leafValues>
            -1.7137528955936432e-01 2.8451165556907654e-01</leafValues></_>
        <_>
          <internalNodes>
            0 -1 431 -9.5394343137741089e-02</internalNodes>
          <leafValues>
            7.1989321708679199e-01 -5.7459577918052673e-02</leafValues></_>
        <_>
          <internalNodes>
            0 -1 163 8.0578662455081940e-02</internalNodes>
          <leafValues>
            -1.7179825901985168e-01 2.8070372343063354e-01</leafValues></_></weakClassifiers></_>
    <!-- stage 8 -->
    <_>
      <maxWeakCount>26</maxWeakCount>
      <stageThreshold>-1.6056139469146729e+00</stageThreshold>
      <weakClassifiers>
        <_>
          <internalNodes>
            0 -1 383 1.7385554313659668e-01</internalNodes>
          <leafValues>
            -6.8103128671646118e-01 3.2679740339517593e-02</leafValues></_>
        <_>
          <internalNodes>
            0 -1 15 -1.4273694157600403e-01</internalNodes>
          <leafValues>
            2.4788302183151245e-01 -3.7235847115516663e-01</leafValues></_>
        <_>
          <internalNodes>
            0 -1 521 -1.9133804016746581e-04</internalNodes>
          <leafValues>
            -4.9427527189254761e-01 1.5976034104824066e-01</leafValues></_>
        <_>
          <internalNodes>
            0 -1 443 -1.0101192444562912e-01</internalNodes>
          <leafValues>
            4.1039794683456421e-01 -1.5324877202510834e-01</leafValues></_>
        <_>
          <internalNodes>
            0 -1 277 3.2300751656293869e-02</internalNodes>
          <leafValues>
            -3.0083477497100830e-01 1.9926901161670685e-01</leafValues></_>
        <_>
          <internalNodes>
            0 -1 500 -4.6191777801141143e-04</internalNodes>
          <leafValues>
            -3.6482045054435730e-01 1.7774958908557892e-01</leafValues></_>
        <_>
          <internalNodes>
            0 -1 57 3.8486983976326883e-04</internalNodes>
          <leafValues>
            1.1118588596582413e-01 -4.5060929656028748e-01</leafValues></_>
        <_>
          <internalNodes>
            0 -1 56 -1.8101136083714664e-04</internalNodes>
          <leafValues>
            -3.1017780303955078e-01 1.5519322454929352e-01</leafValues></_>
        <_>
          <internalNodes>
            0 -1 317 -3.4325078129768372e-02</internalNodes>
          <leafValues>
            4.3893173336982727e-01 -1.2196348607540131e-01</leafValues></_>
        <_>
          <internalNodes>
            0 -1 315 2.7076605707406998e-02</internalNodes>
          <leafValues>
            -1.8502742052078247e-01 3.1687843799591064e-01</leafValues></_>
        <_>
          <internalNodes>
            0 -1 410 -2.0656380802392960e-02</internalNodes>
          <leafValues>
            4.3298551440238953e-01 -1.1470316350460052e-01</leafValues></_>
        <_>
          <internalNodes>
            0 -1 217 -1.0997015051543713e-02</internalNodes>
          <leafValues>
            2.6149681210517883e-01 -1.9119304418563843e-01</leafValues></_>
        <_>
          <internalNodes>
            0 -1 473 1.1086578015238047e-03</internalNodes>
          <leafValues>
            7.6270408928394318e-02 -6.2268394231796265e-01</leafValues></_>
        <_>
          <internalNodes>
            0 -1 344 -1.0232157073915005e-02</internalNodes>
          <leafValues>
            3.5524135828018188e-01 -1.2798190116882324e-01</leafValues></_>
        <_>
          <internalNodes>
            0 -1 305 -4.3348236940801144e-03</internalNodes>
          <leafValues>
            4.0100020170211792e-01 -1.5445655584335327e-01</leafValues></_>
        <_>
          <internalNodes>
            0 -1 195 8.4326267242431641e-03</internalNodes>
          <leafValues>
            -8.6572401225566864e-02 5.0007045269012451e-01</leafValues></_>
        <_>
          <internalNodes>
            0 -1 319 2.7030876372009516e-03</internalNodes>
          <leafValues>
            6.2703892588615417e-02 -7.1176403760910034e-01</leafValues></_>
        <_>
          <internalNodes>
            0 -1 75 -8.4941517561674118e-03</internalNodes>
          <leafValues>
            3.4322834014892578e-01 -1.2545345723628998e-01</leafValues></_>
        <_>
          <internalNodes>
            0 -1 235 -1.8178743124008179e-01</internalNodes>
          <leafValues>
            6.1392837762832642e-01 -7.6969996094703674e-02</leafValues></_>
        <_>
          <internalNodes>
            0 -1 178 1.9450914114713669e-02</internalNodes>
          <leafValues>
            -1.0972009599208832e-01 3.8592562079429626e-01</leafValues></_>
        <_>
          <internalNodes>
            0 -1 314 4.2013110942207277e-04</internalNodes>
          <leafValues>
            1.3331231474876404e-01 -3.8088595867156982e-01</leafValues></_>
        <_>
          <internalNodes>
            0 -1 50 2.3194454610347748e-02</internalNodes>
          <leafValues>
            -1.2692381441593170e-01 3.7921884655952454e-01</leafValues></_>
        <_>
          <internalNodes>
            0 -1 212 -3.1543835066258907e-03</internalNodes>
          <leafValues>
            3.6067336797714233e-01 -1.4057290554046631e-01</leafValues></_>
        <_>
          <internalNodes>
            0 -1 462 1.3426120858639479e-03</internalNodes>
          <leafValues>
            6.8407371640205383e-02 -6.8188434839248657e-01</leafValues></_>
        <_>
          <internalNodes>
            0 -1 181 1.4925180585123599e-04</internalNodes>
          <leafValues>
            -2.4366174638271332e-01 1.7555423080921173e-01</leafValues></_>
        <_>
          <internalNodes>
            0 -1 439 6.4325365237891674e-03</internalNodes>
          <leafValues>
            -1.5470127761363983e-01 2.9714924097061157e-01</leafValues></_></weakClassifiers></_>
    <!-- stage 9 -->
    <_>
      <maxWeakCount>29</maxWeakCount>
      <stageThreshold>-1.6582696437835693e+00</stageThreshold>
      <weakClassifiers>
        <_>
          <internalNodes>
            0 -1 398 1.0091827809810638e-01</internalNodes>
          <leafValues>
            -7.4382859468460083e-01 -1.3239780068397522e-01</leafValues></_>
        <_>
          <internalNodes>
            0 -1 29 -4.5206148177385330e-02</internalNodes>
          <leafValues>
            1.6312167048454285e-01 -4.5480877161026001e-01</leafValues></_>
        <_>
          <internalNodes>
            0 -1 118 1.5965592861175537e-01</internalNodes>
          <leafValues>
            -2.5435185432434082e-01 2.5911825895309448e-01</leafValues></_>
        <_>
          <internalNodes>
            0 -1 518 -2.8591087902896106e-04</internalNodes>
          <leafValues>
            -3.9959311485290527e-01 1.8008276820182800e-01</leafValues></_>
        <_>
          <internalNodes>
            0 -1 260 -3.1688711605966091e-03</internalNodes>
          <leafValues>
            3.5745060443878174e-01 -1.6365078091621399e-01</leafValues></_>
        <_>
          <internalNodes>
            0 -1 23 9.6505992114543915e-02</internalNodes>
          <leafValues>
            -7.2021842002868652e-02 6.6360348463058472e-01</leafValues></_>
        <_>
          <internalNodes>
            0 -1 504 -7.6749483123421669e-03</internalNodes>
          <leafValues>
            4.3353709578514099e-01 -1.1371262371540070e-01</leafValues></_>
        <_>
          <internalNodes>
            0 -1 400 -2.4687848985195160e-02</internalNodes>
          <leafValues>
            5.6312286853790283e-01 -9.4216108322143555e-02</leafValues></_>
        <_>
          <internalNodes>
            0 -1 287 6.6240495070815086e-03</internalNodes>
          <leafValues>
            -2.0943769812583923e-01 2.4299401044845581e-01</leafValues></_>
        <_>
          <internalNodes>
            0 -1 515 6.5706041641533375e-04</internalNodes>
          <leafValues>
            1.3168430328369141e-01 -3.5948249697685242e-01</leafValues></_>
        <_>
          <internalNodes>
            0 -1 286 7.7150999568402767e-03</internalNodes>
          <leafValues>
            -1.4612013101577759e-01 3.5550555586814880e-01</leafValues></_>
        <_>
          <internalNodes>
            0 -1 336 -1.4791667461395264e-02</internalNodes>
          <leafValues>
            3.0301722884178162e-01 -1.5656888484954834e-01</leafValues></_>
        <_>
          <internalNodes>
            0 -1 144 2.5834355037659407e-03</internalNodes>
          <leafValues>
            -2.3587705194950104e-01 2.0811626315116882e-01</leafValues></_>
        <_>
          <internalNodes>
            0 -1 508 -6.5868935780599713e-04</internalNodes>
          <leafValues>
            -3.8275256752967834e-01 1.4844071865081787e-01</leafValues></_>
        <_>
          <internalNodes>
            0 -1 252 4.7337589785456657e-03</internalNodes>
          <leafValues>
            7.5066260993480682e-02 -5.0465983152389526e-01</leafValues></_>
        <_>
          <internalNodes>
            0 -1 172 -3.4339679405093193e-03</internalNodes>
          <leafValues>
            -4.6125051379203796e-01 9.8411582410335541e-02</leafValues></_>
        <_>
          <internalNodes>
            0 -1 100 7.4407935142517090e-02</internalNodes>
          <leafValues>
            6.5693832933902740e-02 -5.5047649145126343e-01</leafValues></_>
        <_>
          <internalNodes>
            0 -1 167 6.0558822005987167e-03</internalNodes>
          <leafValues>
            -1.5373641252517700e-01 2.7553451061248779e-01</leafValues></_>
        <_>
          <internalNodes>
            0 -1 175 -2.1456982940435410e-02</internalNodes>
          <leafValues>
            4.1550910472869873e-01 -1.0521796345710754e-01</leafValues></_>
        <_>
          <internalNodes>
            0 -1 89 3.9476784877479076e-03</internalNodes>
          <leafValues>
            -9.9848419427871704e-02 4.3328350782394409e-01</leafValues></_>
        <_>
          <internalNodes>
            0 -1 325 -7.1983470115810633e-04</internalNodes>
          <leafValues>
            -4.6037149429321289e-01 1.0015971213579178e-01</leafValues></_>
        <_>
          <internalNodes>
            0 -1 279 4.8491694033145905e-03</internalNodes>
          <leafValues>
            -1.4049604535102844e-01 3.7306717038154602e-01</leafValues></_>
        <_>
          <internalNodes>
            0 -1 444 1.3714690692722797e-02</internalNodes>
          <leafValues>
            -1.2094951421022415e-01 3.3007189631462097e-01</leafValues></_>
        <_>
          <internalNodes>
            0 -1 448 3.2536245882511139e-02</internalNodes>
          <leafValues>
            -1.3762181997299194e-01 3.1483271718025208e-01</leafValues></_>
        <_>
          <internalNodes>
            0 -1 419 -3.4250002354383469e-03</internalNodes>
          <leafValues>
            -5.0589054822921753e-01 8.3450071513652802e-02</leafValues></_>
        <_>
          <internalNodes>
            0 -1 254 6.7446390166878700e-03</internalNodes>
          <leafValues>
            -1.5265341103076935e-01 2.9466497898101807e-01</leafValues></_>
        <_>
          <internalNodes>
            0 -1 353 7.8336021397262812e-04</internalNodes>
          <leafValues>
            -1.0391402244567871e-01 3.8288956880569458e-01</leafValues></_>
        <_>
          <internalNodes>
            0 -1 386 -2.3433722089976072e-03</internalNodes>
          <leafValues>
            2.7288585901260376e-01 -1.4705270528793335e-01</leafValues></_>
        <_>
          <internalNodes>
            0 -1 109 1.4134965837001801e-02</internalNodes>
          <leafValues>
            -1.1977517604827881e-01 4.4771254062652588e-01</leafValues></_></weakClassifiers></_>
    <!-- stage 10 -->
    <_>
      <maxWeakCount>32</maxWeakCount>
      <stageThreshold>-1.6239647865295410e+00</stageThreshold>
      <weakClassifiers>
        <_>
          <internalNodes>
            0 -1 71 -2.9004848003387451e-01</internalNodes>
          <leafValues>
            -3.2432433217763901e-02 -6.6442453861236572e-01</leafValues></_>
        <_>
          <internalNodes>
            0 -1 21 -9.3766212463378906e-02</internalNodes>
          <leafValues>
            2.4159796535968781e-01 -3.1202888488769531e-01</leafValues></_>
        <_>
          <internalNodes>
            0 -1 177 2.4238513782620430e-02</internalNodes>
          <leafValues>
            -1.9944058358669281e-01 3.2141080498695374e-01</leafValues></_>
        <_>
          <internalNodes>
            0 -1 184 -9.1275284066796303e-03</internalNodes>
          <leafValues>
            -6.8250316381454468e-01 9.5885068178176880e-02</leafValues></_>
        <_>
          <internalNodes>
            0 -1 477 1.7485199496150017e-02</internalNodes>
          <leafValues>
            -2.5032648444175720e-01 2.2106102108955383e-01</leafValues></_>
        <_>
          <internalNodes>
            0 -1 512 6.4484134782105684e-04</internalNodes>
          <leafValues>
            1.1790947616100311e-01 -5.0945717096328735e-01</leafValues></_>
        <_>
          <internalNodes>
            0 -1 106 -7.4966729152947664e-04</internalNodes>
          <leafValues>
            -6.0009586811065674e-01 1.0185790061950684e-01</leafValues></_>
        <_>
          <internalNodes>
            0 -1 106 3.1243657576851547e-04</internalNodes>
          <leafValues>
            1.1415771394968033e-01 -4.3079787492752075e-01</leafValues></_>
        <_>
          <internalNodes>
            0 -1 342 2.5649066083133221e-03</internalNodes>
          <leafValues>
            -1.1681090295314789e-01 4.3674564361572266e-01</leafValues></_>
        <_>
          <internalNodes>
            0 -1 81 -3.8565337657928467e-02</internalNodes>
          <leafValues>
            3.6792531609535217e-01 -1.2465538829565048e-01</leafValues></_>
        <_>
          <internalNodes>
            0 -1 209 1.4206958934664726e-02</internalNodes>
          <leafValues>
            -1.0752325505018234e-01 4.4017022848129272e-01</leafValues></_>
        <_>
          <internalNodes>
            0 -1 129 7.3230396956205368e-03</internalNodes>
          <leafValues>
            -1.2513409554958344e-01 4.2082053422927856e-01</leafValues></_>
        <_>
          <internalNodes>
            0 -1 283 8.6167175322771072e-03</internalNodes>
          <leafValues>
            -1.7437781393527985e-01 2.9435616731643677e-01</leafValues></_>
        <_>
          <internalNodes>
            0 -1 376 3.5253965761512518e-03</internalNodes>
          <leafValues>
            -1.7486754059791565e-01 3.0272823572158813e-01</leafValues></_>
        <_>
          <internalNodes>
            0 -1 513 -3.4479569876566529e-04</internalNodes>
          <leafValues>
            -3.7740233540534973e-01 1.4020979404449463e-01</leafValues></_>
        <_>
          <internalNodes>
            0 -1 2 -3.2473811879754066e-03</internalNodes>
          <leafValues>
            -4.6549558639526367e-01 9.8296642303466797e-02</leafValues></_>
        <_>
          <internalNodes>
            0 -1 63 -3.1496435985900462e-04</internalNodes>
          <leafValues>
            1.4122126996517181e-01 -2.7889633178710938e-01</leafValues></_>
        <_>
          <internalNodes>
            0 -1 525 -8.5579622536897659e-03</internalNodes>
          <leafValues>
            -7.2039514780044556e-01 4.5207899063825607e-02</leafValues></_>
        <_>
          <internalNodes>
            0 -1 250 -3.9373300969600677e-03</internalNodes>
          <leafValues>
            2.4538247287273407e-01 -1.5188944339752197e-01</leafValues></_>
        <_>
          <internalNodes>
            0 -1 453 1.4446722343564034e-02</internalNodes>
          <leafValues>
            -1.5311552584171295e-01 2.4340645968914032e-01</leafValues></_>
        <_>
          <internalNodes>
            0 -1 165 4.7240279614925385e-02</internalNodes>
          <leafValues>
            -1.2956583499908447e-01 2.9889118671417236e-01</leafValues></_>
        <_>
          <internalNodes>
            0 -1 323 -1.2828765437006950e-02</internalNodes>
          <leafValues>
            2.2682203352451324e-01 -1.7610622942447662e-01</leafValues></_>
        <_>
          <internalNodes>
            0 -1 60 3.3789954613894224e-04</internalNodes>
          <leafValues>
            7.6194196939468384e-02 -4.9316230416297913e-01</leafValues></_>
        <_>
          <internalNodes>
            0 -1 224 -5.1570404320955276e-03</internalNodes>
          <leafValues>
            5.0714933872222900e-01 -8.1233769655227661e-02</leafValues></_>
        <_>
          <internalNodes>
            0 -1 223 2.5905668735504150e-02</internalNodes>
          <leafValues>
            -6.8130739033222198e-02 5.2551007270812988e-01</leafValues></_>
        <_>
          <internalNodes>
            0 -1 193 -4.0954202413558960e-02</internalNodes>
          <leafValues>
            2.9821172356605530e-01 -1.7355775833129883e-01</leafValues></_>
        <_>
          <internalNodes>
            0 -1 151 -3.0437190085649490e-02</internalNodes>
          <leafValues>
            3.0198362469673157e-01 -1.3061769306659698e-01</leafValues></_>
        <_>
          <internalNodes>
            0 -1 267 -2.7070869691669941e-03</internalNodes>
          <leafValues>
            2.5885969400405884e-01 -1.6328762471675873e-01</leafValues></_>
        <_>
          <internalNodes>
            0 -1 379 4.4007640099152923e-04</internalNodes>
          <leafValues>
            9.5606744289398193e-02 -4.1093671321868896e-01</leafValues></_>
        <_>
          <internalNodes>
            0 -1 137 -5.5591752752661705e-03</internalNodes>
          <leafValues>
            4.6184265613555908e-01 -7.7581241726875305e-02</leafValues></_>
        <_>
          <internalNodes>
            0 -1 365 -9.1641885228455067e-04</internalNodes>
          <leafValues>
            -5.2632361650466919e-01 7.9305946826934814e-02</leafValues></_>
        <_>
          <internalNodes>
            0 -1 374 -2.3989612236618996e-03</internalNodes>
          <leafValues>
            -6.1296141147613525e-01 4.8418175429105759e-02</leafValues></_></weakClassifiers></_>
    <!-- stage 11 -->
    <_>
      <maxWeakCount>33</maxWeakCount>
      <stageThreshold>-1.5401721000671387e+00</stageThreshold>
      <weakClassifiers>
        <_>
          <internalNodes>
            0 -1 11 -4.1223794221878052e-02</internalNodes>
          <leafValues>
            -1.9112384319305420e-01 -6.4755129814147949e-01</leafValues></_>
        <_>
          <internalNodes>
            0 -1 108 -1.9405114650726318e-01</internalNodes>
          <leafValues>
            2.0439684391021729e-01 -3.2527512311935425e-01</leafValues></_>
        <_>
          <internalNodes>
            0 -1 405 -1.4202089980244637e-02</internalNodes>
          <leafValues>
            4.2424258589744568e-01 -1.3943395018577576e-01</leafValues></_>
        <_>
          <internalNodes>
            0 -1 219 1.0664364323019981e-02</internalNodes>
          <leafValues>
            -1.8331459164619446e-01 2.8908270597457886e-01</leafValues></_>
        <_>
          <internalNodes>
            0 -1 435 1.7143461853265762e-02</internalNodes>
          <leafValues>
            -1.4167988300323486e-01 3.5865786671638489e-01</leafValues></_>
        <_>
          <internalNodes>
            0 -1 48 -2.0689962548203766e-04</internalNodes>
          <leafValues>
            -2.9660004377365112e-01 1.6393882036209106e-01</leafValues></_>
        <_>
          <internalNodes>
            0 -1 44 1.5844413428567350e-04</internalNodes>
          <leafValues>
            1.5368628501892090e-01 -3.2605722546577454e-01</leafValues></_>
        <_>
          <internalNodes>
            0 -1 188 -4.5562102459371090e-03</internalNodes>
          <leafValues>
            2.8929072618484497e-01 -1.4988398551940918e-01</leafValues></_>
        <_>
          <internalNodes>
            0 -1 412 3.3320225775241852e-03</internalNodes>
          <leafValues>
            -1.2812384963035583e-01 3.0824109911918640e-01</leafValues></_>
        <_>
          <internalNodes>
            0 -1 488 5.7942390412790701e-05</internalNodes>
          <leafValues>
            -3.5007798671722412e-01 1.2634295225143433e-01</leafValues></_>
        <_>
          <internalNodes>
            0 -1 464 4.4158138334751129e-03</internalNodes>
          <leafValues>
            9.2716686427593231e-02 -4.5719936490058899e-01</leafValues></_>
        <_>
          <internalNodes>
            0 -1 128 -1.5933299437165260e-02</internalNodes>
          <leafValues>
            3.0506774783134460e-01 -1.4784570038318634e-01</leafValues></_>
        <_>
          <internalNodes>
            0 -1 380 2.0531103946268559e-03</internalNodes>
          <leafValues>
            9.7307331860065460e-02 -4.5936489105224609e-01</leafValues></_>
        <_>
          <internalNodes>
            0 -1 306 -3.5052567720413208e-02</internalNodes>
          <leafValues>
            -6.1980032920837402e-01 5.4541509598493576e-02</leafValues></_>
        <_>
          <internalNodes>
            0 -1 356 -1.7630781512707472e-03</internalNodes>
          <leafValues>
            2.2660903632640839e-01 -1.7629677057266235e-01</leafValues></_>
        <_>
          <internalNodes>
            0 -1 313 2.2253453789744526e-04</internalNodes>
          <leafValues>
            1.1276734620332718e-01 -3.4528771042823792e-01</leafValues></_>
        <_>
          <internalNodes>
            0 -1 425 -4.5214863494038582e-03</internalNodes>
          <leafValues>
            3.1814575195312500e-01 -1.3043101131916046e-01</leafValues></_>
        <_>
          <internalNodes>
            0 -1 421 6.3901450484991074e-03</internalNodes>
          <leafValues>
            -1.2795169651508331e-01 2.9688277840614319e-01</leafValues></_>
        <_>
          <internalNodes>
            0 -1 294 6.5290764905512333e-04</internalNodes>
          <leafValues>
            7.5905606150627136e-02 -4.6047288179397583e-01</leafValues></_>
        <_>
          <internalNodes>
            0 -1 87 -7.1782032027840614e-03</internalNodes>
          <leafValues>
            3.9446318149566650e-01 -1.0008160769939423e-01</leafValues></_>
        <_>
          <internalNodes>
            0 -1 361 -3.7127090618014336e-03</internalNodes>
          <leafValues>
            1.7641037702560425e-01 -2.0461855828762054e-01</leafValues></_>
        <_>
          <internalNodes>
            0 -1 67 -1.2843788601458073e-02</internalNodes>
          <leafValues>
            -5.6653988361358643e-01 6.2998302280902863e-02</leafValues></_>
        <_>
          <internalNodes>
            0 -1 66 -3.0515220714733005e-04</internalNodes>
          <leafValues>
            1.4819584786891937e-01 -2.5735977292060852e-01</leafValues></_>
        <_>
          <internalNodes>
            0 -1 13 -4.4046301627531648e-04</internalNodes>
          <leafValues>
            -3.0044743418693542e-01 1.1421470344066620e-01</leafValues></_>
        <_>
          <internalNodes>
            0 -1 194 1.0848844423890114e-02</internalNodes>
          <leafValues>
            -6.4537227153778076e-02 5.4980415105819702e-01</leafValues></_>
        <_>
          <internalNodes>
            0 -1 157 -3.3753444440662861e-03</internalNodes>
          <leafValues>
            2.6352542638778687e-01 -1.3173794746398926e-01</leafValues></_>
        <_>
          <internalNodes>
            0 -1 171 -4.1272612288594246e-03</internalNodes>
          <leafValues>
            3.5074609518051147e-01 -9.8559223115444183e-02</leafValues></_>
        <_>
          <internalNodes>
            0 -1 206 7.3696495965123177e-03</internalNodes>
          <leafValues>
            -7.4755266308784485e-02 5.1226258277893066e-01</leafValues></_>
        <_>
          <internalNodes>
            0 -1 316 9.8275835625827312e-04</internalNodes>
          <leafValues>
            8.6829848587512970e-02 -4.5197308063507080e-01</leafValues></_>
        <_>
          <internalNodes>
            0 -1 362 -6.9090882316231728e-03</internalNodes>
          <leafValues>
            1.9626891613006592e-01 -1.8161606788635254e-01</leafValues></_>
        <_>
          <internalNodes>
            0 -1 332 -3.7629937287420034e-03</internalNodes>
          <leafValues>
            3.6704209446907043e-01 -9.4026289880275726e-02</leafValues></_>
        <_>
          <internalNodes>
            0 -1 482 -8.7495716288685799e-03</internalNodes>
          <leafValues>
            5.3977584838867188e-01 -6.8495333194732666e-02</leafValues></_>
        <_>
          <internalNodes>
            0 -1 480 6.4019650220870972e-02</internalNodes>
          <leafValues>
            -1.5422654151916504e-01 2.9828304052352905e-01</leafValues></_></weakClassifiers></_>
    <!-- stage 12 -->
    <_>
      <maxWeakCount>33</maxWeakCount>
      <stageThreshold>-1.5124665498733521e+00</stageThreshold>
      <weakClassifiers>
        <_>
          <internalNodes>
            0 -1 72 -3.1255626678466797e-01</internalNodes>
          <leafValues>
            5.7142857462167740e-02 -6.1604773998260498e-01</leafValues></_>
        <_>
          <internalNodes>
            0 -1 478 1.7345666885375977e-02</internalNodes>
          <leafValues>
            -4.1132277250289917e-01 1.6427566111087799e-01</leafValues></_>
        <_>
          <internalNodes>
            0 -1 84 -1.4964837580919266e-02</internalNodes>
          <leafValues>
            1.7523218691349030e-01 -3.0710813403129578e-01</leafValues></_>
        <_>
          <internalNodes>
            0 -1 119 -4.6587968245148659e-04</internalNodes>
          <leafValues>
            1.8307870626449585e-01 -2.6123878359794617e-01</leafValues></_>
        <_>
          <internalNodes>
            0 -1 517 3.3610814716666937e-04</internalNodes>
          <leafValues>
            1.3102741539478302e-01 -4.0375158190727234e-01</leafValues></_>
        <_>
          <internalNodes>
            0 -1 106 -1.4640827430412173e-04</internalNodes>
          <leafValues>
            -3.0268996953964233e-01 1.5099649131298065e-01</leafValues></_>
        <_>
          <internalNodes>
            0 -1 359 9.1487716417759657e-05</internalNodes>
          <leafValues>
            1.2670972943305969e-01 -3.2734560966491699e-01</leafValues></_>
        <_>
          <internalNodes>
            0 -1 263 -7.6099913567304611e-03</internalNodes>
          <leafValues>
            3.1513863801956177e-01 -1.1902480572462082e-01</leafValues></_>
        <_>
          <internalNodes>
            0 -1 78 -7.1363680064678192e-02</internalNodes>
          <leafValues>
            3.3761629462242126e-01 -1.2784011662006378e-01</leafValues></_>
        <_>
          <internalNodes>
            0 -1 61 2.6163703296333551e-04</internalNodes>
          <leafValues>
            1.0927265882492065e-01 -4.4208574295043945e-01</leafValues></_>
        <_>
          <internalNodes>
            0 -1 65 -2.4987544748000801e-04</internalNodes>
          <leafValues>
            -3.6682131886482239e-01 1.0215969383716583e-01</leafValues></_>
        <_>
          <internalNodes>
            0 -1 133 2.0926468074321747e-02</internalNodes>
          <leafValues>
            -9.0415820479393005e-02 5.1280629634857178e-01</leafValues></_>
        <_>
          <internalNodes>
            0 -1 254 4.1664796881377697e-03</internalNodes>
          <leafValues>
            -1.6973510384559631e-01 2.2891139984130859e-01</leafValues></_>
        <_>
          <internalNodes>
            0 -1 255 1.0436605662107468e-03</internalNodes>
          <leafValues>
            6.0288086533546448e-02 -5.3889226913452148e-01</leafValues></_>
        <_>
          <internalNodes>
            0 -1 231 7.8688031062483788e-03</internalNodes>
          <leafValues>
            -1.0547222942113876e-01 3.7810996174812317e-01</leafValues></_>
        <_>
          <internalNodes>
            0 -1 192 -5.4356935434043407e-03</internalNodes>
          <leafValues>
            2.5381273031234741e-01 -1.5552818775177002e-01</leafValues></_>
        <_>
          <internalNodes>
            0 -1 467 9.8473356047179550e-05</internalNodes>
          <leafValues>
            1.2846358120441437e-01 -2.8694045543670654e-01</leafValues></_>
        <_>
          <internalNodes>
            0 -1 440 2.5082372594624758e-03</internalNodes>
          <leafValues>
            -1.7043693363666534e-01 2.3969608545303345e-01</leafValues></_>
        <_>
          <internalNodes>
            0 -1 338 8.3847921341657639e-03</internalNodes>
          <leafValues>
            -1.4601102471351624e-01 3.8888317346572876e-01</leafValues></_>
        <_>
          <internalNodes>
            0 -1 335 -1.0090328752994537e-02</internalNodes>
          <leafValues>
            2.4735471606254578e-01 -1.9073149561882019e-01</leafValues></_>
        <_>
          <internalNodes>
            0 -1 523 -1.1461603571660817e-04</internalNodes>
          <leafValues>
            -3.9756160974502563e-01 1.0555227100849152e-01</leafValues></_>
        <_>
          <internalNodes>
            0 -1 426 -9.6805747598409653e-03</internalNodes>
          <leafValues>
            3.2037547230720520e-01 -1.3463681936264038e-01</leafValues></_>
        <_>
          <internalNodes>
            0 -1 470 1.7204368487000465e-02</internalNodes>
          <leafValues>
            -1.1034278571605682e-01 3.5624396800994873e-01</leafValues></_>
        <_>
          <internalNodes>
            0 -1 196 3.7473272532224655e-02</internalNodes>
          <leafValues>
            -5.8079469949007034e-02 5.2579492330551147e-01</leafValues></_>
        <_>
          <internalNodes>
            0 -1 498 -4.5477156527340412e-04</internalNodes>
          <leafValues>
            -3.7659290432929993e-01 1.0430799424648285e-01</leafValues></_>
        <_>
          <internalNodes>
            0 -1 436 -3.5346180200576782e-02</internalNodes>
          <leafValues>
            4.2512810230255127e-01 -9.0594694018363953e-02</leafValues></_>
        <_>
          <internalNodes>
            0 -1 95 -6.2062125653028488e-03</internalNodes>
          <leafValues>
            -7.6359128952026367e-01 4.9042172729969025e-02</leafValues></_>
        <_>
          <internalNodes>
            0 -1 113 -1.3738106936216354e-03</internalNodes>
          <leafValues>
            1.8529155850410461e-01 -1.8378497660160065e-01</leafValues></_>
        <_>
          <internalNodes>
            0 -1 456 1.8901228904724121e-02</internalNodes>
          <leafValues>
            -1.4063619077205658e-01 2.6157253980636597e-01</leafValues></_>
        <_>
          <internalNodes>
            0 -1 358 -3.1604510149918497e-04</internalNodes>
          <leafValues>
            1.4598914980888367e-01 -2.3031137883663177e-01</leafValues></_>
        <_>
          <internalNodes>
            0 -1 127 -1.1232613585889339e-02</internalNodes>
          <leafValues>
            2.9856497049331665e-01 -1.0767401009798050e-01</leafValues></_>
        <_>
          <internalNodes>
            0 -1 131 7.7394680120050907e-03</internalNodes>
          <leafValues>
            -1.1582001298666000e-01 2.7250996232032776e-01</leafValues></_>
        <_>
          <internalNodes>
            0 -1 318 -5.9076957404613495e-02</internalNodes>
          <leafValues>
            5.4212570190429688e-01 -6.5506473183631897e-02</leafValues></_></weakClassifiers></_>
    <!-- stage 13 -->
    <_>
      <maxWeakCount>37</maxWeakCount>
      <stageThreshold>-1.4842371940612793e+00</stageThreshold>
      <weakClassifiers>
        <_>
          <internalNodes>
            0 -1 17 -1.6362404823303223e-01</internalNodes>
          <leafValues>
            -1.1936759203672409e-01 -6.5965884923934937e-01</leafValues></_>
        <_>
          <internalNodes>
            0 -1 446 7.9247713088989258e-02</internalNodes>
          <leafValues>
            -3.3254334330558777e-01 1.4439067244529724e-01</leafValues></_>
        <_>
          <internalNodes>
            0 -1 392 -8.6733471835032105e-04</internalNodes>
          <leafValues>
            1.3406856358051300e-01 -3.0813345313072205e-01</leafValues></_>
        <_>
          <internalNodes>
            0 -1 152 1.1934360489249229e-02</internalNodes>
          <leafValues>
            -1.1090915650129318e-01 3.1881281733512878e-01</leafValues></_>
        <_>
          <internalNodes>
            0 -1 495 5.9530808357521892e-04</internalNodes>
          <leafValues>
            1.4905212819576263e-01 -2.5136721134185791e-01</leafValues></_>
        <_>
          <internalNodes>
            0 -1 505 3.9016560185700655e-03</internalNodes>
          <leafValues>
            -1.8234683573246002e-01 2.2895513474941254e-01</leafValues></_>
        <_>
          <internalNodes>
            0 -1 497 -2.3104983847588301e-04</internalNodes>
          <leafValues>
            -3.5075774788856506e-01 1.0165205597877502e-01</leafValues></_>
        <_>
          <internalNodes>
            0 -1 242 3.1582877039909363e-02</internalNodes>
          <leafValues>
            -5.7707954198122025e-02 5.9571009874343872e-01</leafValues></_>
        <_>
          <internalNodes>
            0 -1 409 -5.1714922301471233e-03</internalNodes>
          <leafValues>
            2.4884811043739319e-01 -1.2905248999595642e-01</leafValues></_>
        <_>
          <internalNodes>
            0 -1 403 6.3796089962124825e-03</internalNodes>
          <leafValues>
            -1.3552287220954895e-01 3.2378140091896057e-01</leafValues></_>
        <_>
          <internalNodes>
            0 -1 401 4.2130090296268463e-03</internalNodes>
          <leafValues>
            -1.2937948107719421e-01 2.9735136032104492e-01</leafValues></_>
        <_>
          <internalNodes>
            0 -1 52 5.9481091797351837e-02</internalNodes>
          <leafValues>
            9.2425934970378876e-02 -4.1770842671394348e-01</leafValues></_>
        <_>
          <internalNodes>
            0 -1 502 -2.7278042398393154e-04</internalNodes>
          <leafValues>
            -3.9043870568275452e-01 9.1839455068111420e-02</leafValues></_>
        <_>
          <internalNodes>
            0 -1 300 -1.6638380475342274e-03</internalNodes>
          <leafValues>
            2.2228524088859558e-01 -1.6472546756267548e-01</leafValues></_>
        <_>
          <internalNodes>
            0 -1 220 1.6160092782229185e-03</internalNodes>
          <leafValues>
            -2.2659534215927124e-01 1.7677979171276093e-01</leafValues></_>
        <_>
          <internalNodes>
            0 -1 216 8.0304257571697235e-03</internalNodes>
          <leafValues>
            -1.1035598814487457e-01 3.1528231501579285e-01</leafValues></_>
        <_>
          <internalNodes>
            0 -1 79 2.9189051128923893e-03</internalNodes>
          <leafValues>
            7.8020051121711731e-02 -4.3751117587089539e-01</leafValues></_>
        <_>
          <internalNodes>
            0 -1 27 -9.4902794808149338e-03</internalNodes>
          <leafValues>
            -5.9839195013046265e-01 5.6490764021873474e-02</leafValues></_>
        <_>
          <internalNodes>
            0 -1 57 6.0955423396080732e-04</internalNodes>
          <leafValues>
            6.4394496381282806e-02 -4.6554961800575256e-01</leafValues></_>
        <_>
          <internalNodes>
            0 -1 249 -2.7455445379018784e-03</internalNodes>
          <leafValues>
            2.2406643629074097e-01 -1.4440572261810303e-01</leafValues></_>
        <_>
          <internalNodes>
            0 -1 45 1.2189188040792942e-02</internalNodes>
          <leafValues>
            -1.2622275948524475e-01 2.9846346378326416e-01</leafValues></_>
        <_>
          <internalNodes>
            0 -1 117 -1.3514631986618042e-01</internalNodes>
          <leafValues>
            4.0796428918838501e-01 -8.2479156553745270e-02</leafValues></_>
        <_>
          <internalNodes>
            0 -1 357 3.8308015791699290e-04</internalNodes>
          <leafValues>
            1.1818884313106537e-01 -3.2998701930046082e-01</leafValues></_>
        <_>
          <internalNodes>
            0 -1 352 -1.4383140951395035e-02</internalNodes>
          <leafValues>
            1.9655492901802063e-01 -1.6870589554309845e-01</leafValues></_>
        <_>
          <internalNodes>
            0 -1 183 1.9442331977188587e-03</internalNodes>
          <leafValues>
            4.0386673063039780e-02 -7.7006626129150391e-01</leafValues></_>
        <_>
          <internalNodes>
            0 -1 303 5.0713298842310905e-03</internalNodes>
          <leafValues>
            -1.2775169312953949e-01 2.6117810606956482e-01</leafValues></_>
        <_>
          <internalNodes>
            0 -1 55 -3.2021261751651764e-02</internalNodes>
          <leafValues>
            -6.0638999938964844e-01 5.2736762911081314e-02</leafValues></_>
        <_>
          <internalNodes>
            0 -1 297 6.2371096573770046e-03</internalNodes>
          <leafValues>
            -1.1826006323099136e-01 2.6426187157630920e-01</leafValues></_>
        <_>
          <internalNodes>
            0 -1 385 -1.8060308694839478e-01</internalNodes>
          <leafValues>
            -6.5608215332031250e-01 4.8060838133096695e-02</leafValues></_>
        <_>
          <internalNodes>
            0 -1 407 -2.7917460538446903e-03</internalNodes>
          <leafValues>
            -5.0202053785324097e-01 5.4883964359760284e-02</leafValues></_>
        <_>
          <internalNodes>
            0 -1 386 8.8811162859201431e-03</internalNodes>
          <leafValues>
            -6.6415429115295410e-02 5.0969487428665161e-01</leafValues></_>
        <_>
          <internalNodes>
            0 -1 327 1.0364553891122341e-02</internalNodes>
          <leafValues>
            -1.9249041378498077e-01 1.6155974566936493e-01</leafValues></_>
        <_>
          <internalNodes>
            0 -1 320 5.3268142044544220e-02</internalNodes>
          <leafValues>
            -9.9988646805286407e-02 3.4854745864868164e-01</leafValues></_>
        <_>
          <internalNodes>
            0 -1 20 1.1528251692652702e-02</internalNodes>
          <leafValues>
            -7.7545255422592163e-02 3.9224174618721008e-01</leafValues></_>
        <_>
          <internalNodes>
            0 -1 417 3.6152810789644718e-03</internalNodes>
          <leafValues>
            6.7178949713706970e-02 -5.0394475460052490e-01</leafValues></_>
        <_>
          <internalNodes>
            0 -1 14 -2.5889676064252853e-02</internalNodes>
          <leafValues>
            1.8463693559169769e-01 -1.6523727774620056e-01</leafValues></_>
        <_>
          <internalNodes>
            0 -1 201 1.2600012123584747e-02</internalNodes>
          <leafValues>
            -8.9769542217254639e-02 3.5662660002708435e-01</leafValues></_></weakClassifiers></_>
    <!-- stage 14 -->
    <_>
      <maxWeakCount>34</maxWeakCount>
      <stageThreshold>-1.5339235067367554e+00</stageThreshold>
      <weakClassifiers>
        <_>
          <internalNodes>
            0 -1 384 1.8983876705169678e-01</internalNodes>
          <leafValues>
            -6.4247101545333862e-01 -1.2541806697845459e-01</leafValues></_>
        <_>
          <internalNodes>
            0 -1 246 -5.4004238918423653e-03</internalNodes>
          <leafValues>
            3.7040060758590698e-01 -2.2819547355175018e-01</leafValues></_>
        <_>
          <internalNodes>
            0 -1 248 4.2385817505419254e-03</internalNodes>
          <leafValues>
            -9.9698655307292938e-02 5.4457736015319824e-01</leafValues></_>
        <_>
          <internalNodes>
            0 -1 53 -2.3960770340636373e-04</internalNodes>
          <leafValues>
            -3.7294882535934448e-01 1.4195133745670319e-01</leafValues></_>
        <_>
          <internalNodes>
            0 -1 341 -1.5597216552123427e-03</internalNodes>
          <leafValues>
            4.5173382759094238e-01 -1.1567693203687668e-01</leafValues></_>
        <_>
          <internalNodes>
            0 -1 49 2.8678169474005699e-04</internalNodes>
          <leafValues>
            1.9042895734310150e-01 -4.0083658695220947e-01</leafValues></_>
        <_>
          <internalNodes>
            0 -1 225 5.1983157172799110e-03</internalNodes>
          <leafValues>
            -1.2075640261173248e-01 4.7075825929641724e-01</leafValues></_>
        <_>
          <internalNodes>
            0 -1 451 -1.9729498773813248e-02</internalNodes>
          <leafValues>
            3.1873837113380432e-01 -1.3370394706726074e-01</leafValues></_>
        <_>
          <internalNodes>
            0 -1 51 2.5933191180229187e-02</internalNodes>
          <leafValues>
            7.9918839037418365e-02 -5.0420397520065308e-01</leafValues></_>
        <_>
          <internalNodes>
            0 -1 101 -7.1580722928047180e-02</internalNodes>
          <leafValues>
            -5.9648972749710083e-01 7.7748484909534454e-02</leafValues></_>
        <_>
          <internalNodes>
            0 -1 105 -3.3016345696523786e-04</internalNodes>
          <leafValues>
            -3.6787724494934082e-01 1.0645669698715210e-01</leafValues></_>
        <_>
          <internalNodes>
            0 -1 393 -2.7960669249296188e-02</internalNodes>
          <leafValues>
            4.1890460252761841e-01 -9.9122211337089539e-02</leafValues></_>
        <_>
          <internalNodes>
            0 -1 404 -4.7069601714611053e-03</internalNodes>
          <leafValues>
            3.2464480400085449e-01 -1.0984396934509277e-01</leafValues></_>
        <_>
          <internalNodes>
            0 -1 373 5.9237321838736534e-03</internalNodes>
          <leafValues>
            -1.4971412718296051e-01 3.2167166471481323e-01</leafValues></_>
        <_>
          <internalNodes>
            0 -1 273 -1.3815308921039104e-03</internalNodes>
          <leafValues>
            -4.0919011831283569e-01 9.2027805745601654e-02</leafValues></_>
        <_>
          <internalNodes>
            0 -1 272 1.7241269815713167e-03</internalNodes>
          <leafValues>
            1.2258797138929367e-01 -3.5044938325881958e-01</leafValues></_>
        <_>
          <internalNodes>
            0 -1 304 -7.1281456621363759e-04</internalNodes>
          <leafValues>
            3.9271649718284607e-01 -1.0870907455682755e-01</leafValues></_>
        <_>
          <internalNodes>
            0 -1 441 -3.2348437234759331e-03</internalNodes>
          <leafValues>
            3.4599211812019348e-01 -9.6778266131877899e-02</leafValues></_>
        <_>
          <internalNodes>
            0 -1 510 6.0560955898836255e-04</internalNodes>
          <leafValues>
            1.3083645701408386e-01 -3.1604567170143127e-01</leafValues></_>
        <_>
          <internalNodes>
            0 -1 509 -4.8760918434709311e-04</internalNodes>
          <leafValues>
            -4.6747320890426636e-01 9.3460686504840851e-02</leafValues></_>
        <_>
          <internalNodes>
            0 -1 123 -1.8048345809802413e-03</internalNodes>
          <leafValues>
            4.8632383346557617e-01 -7.6558165252208710e-02</leafValues></_>
        <_>
          <internalNodes>
            0 -1 355 -5.8219733182340860e-04</internalNodes>
          <leafValues>
            3.4638452529907227e-01 -9.5892623066902161e-02</leafValues></_>
        <_>
          <internalNodes>
            0 -1 369 -5.1823272369801998e-03</internalNodes>
          <leafValues>
            3.1136599183082581e-01 -1.0498610883951187e-01</leafValues></_>
        <_>
          <internalNodes>
            0 -1 433 9.0349683887325227e-05</internalNodes>
          <leafValues>
            1.2514843046665192e-01 -2.5684195756912231e-01</leafValues></_>
        <_>
          <internalNodes>
            0 -1 423 -1.0518776252865791e-03</internalNodes>
          <leafValues>
            2.1121306717395782e-01 -1.5864403545856476e-01</leafValues></_>
        <_>
          <internalNodes>
            0 -1 348 5.5105304345488548e-03</internalNodes>
          <leafValues>
            -1.2363322079181671e-01 2.7796164155006409e-01</leafValues></_>
        <_>
          <internalNodes>
            0 -1 418 -1.3502107467502356e-03</internalNodes>
          <leafValues>
            -3.8777887821197510e-01 9.2551417648792267e-02</leafValues></_>
        <_>
          <internalNodes>
            0 -1 96 3.5260729491710663e-02</internalNodes>
          <leafValues>
            -1.9131952524185181e-01 2.0406389236450195e-01</leafValues></_>
        <_>
          <internalNodes>
            0 -1 126 2.3534607887268066e-01</internalNodes>
          <leafValues>
            5.1581390202045441e-02 -6.3558977842330933e-01</leafValues></_>
        <_>
          <internalNodes>
            0 -1 116 -2.7652154676616192e-04</internalNodes>
          <leafValues>
            1.1958459764719009e-01 -2.6957094669342041e-01</leafValues></_>
        <_>
          <internalNodes>
            0 -1 350 6.2909722328186035e-04</internalNodes>
          <leafValues>
            -1.4354084432125092e-01 2.4405416846275330e-01</leafValues></_>
        <_>
          <internalNodes>
            0 -1 43 -1.0363694280385971e-02</internalNodes>
          <leafValues>
            -4.9030739068984985e-01 7.8529842197895050e-02</leafValues></_>
        <_>
          <internalNodes>
            0 -1 82 -9.4592086970806122e-02</internalNodes>
          <leafValues>
            5.8735930919647217e-01 -6.3763841986656189e-02</leafValues></_>
        <_>
          <internalNodes>
            0 -1 197 3.1619053333997726e-03</internalNodes>
          <leafValues>
            -8.4127686917781830e-02 3.7775072455406189e-01</leafValues></_></weakClassifiers></_>
    <!-- stage 15 -->
    <_>
      <maxWeakCount>43</maxWeakCount>
      <stageThreshold>-1.4691743850708008e+00</stageThreshold>
      <weakClassifiers>
        <_>
          <internalNodes>
            0 -1 30 -9.9889561533927917e-02</internalNodes>
          <leafValues>
            -1.4308053255081177e-01 -6.5057837963104248e-01</leafValues></_>
        <_>
          <internalNodes>
            0 -1 276 2.0532224327325821e-02</internalNodes>
          <leafValues>
            -2.6561656594276428e-01 1.4001947641372681e-01</leafValues></_>
        <_>
          <internalNodes>
            0 -1 46 -4.6602780930697918e-03</internalNodes>
          <leafValues>
            1.2694151699542999e-01 -3.1710049510002136e-01</leafValues></_>
        <_>
          <internalNodes>
            0 -1 520 -4.0842455928213894e-04</internalNodes>
          <leafValues>
            -4.0217739343643188e-01 1.4153026044368744e-01</leafValues></_>
        <_>
          <internalNodes>
            0 -1 308 -5.3097762167453766e-02</internalNodes>
          <leafValues>
            1.5417267382144928e-01 -2.1247754991054535e-01</leafValues></_>
        <_>
          <internalNodes>
            0 -1 241 -4.3832853436470032e-02</internalNodes>
          <leafValues>
            2.5587269663810730e-01 -1.3139319419860840e-01</leafValues></_>
        <_>
          <internalNodes>
            0 -1 71 -3.7359577417373657e-01</internalNodes>
          <leafValues>
            3.3770012855529785e-01 -1.2903563678264618e-01</leafValues></_>
        <_>
          <internalNodes>
            0 -1 469 -1.3880359940230846e-02</internalNodes>
          <leafValues>
            4.7367742657661438e-01 -6.5990842878818512e-02</leafValues></_>
        <_>
          <internalNodes>
            0 -1 135 1.5940677374601364e-02</internalNodes>
          <leafValues>
            -1.6172769665718079e-01 1.9540278613567352e-01</leafValues></_>
        <_>
          <internalNodes>
            0 -1 299 -1.0932869277894497e-02</internalNodes>
          <leafValues>
            2.2066998481750488e-01 -1.5360413491725922e-01</leafValues></_>
        <_>
          <internalNodes>
            0 -1 161 3.3318325877189636e-02</internalNodes>
          <leafValues>
            -7.0993974804878235e-02 4.7683361172676086e-01</leafValues></_>
        <_>
          <internalNodes>
            0 -1 65 -3.0606903601437807e-04</internalNodes>
          <leafValues>
            -3.9899012446403503e-01 8.3472222089767456e-02</leafValues></_>
        <_>
          <internalNodes>
            0 -1 120 8.3925891667604446e-03</internalNodes>
          <leafValues>
            -6.9183804094791412e-02 5.0357860326766968e-01</leafValues></_>
        <_>
          <internalNodes>
            0 -1 64 7.7807650086469948e-05</internalNodes>
          <leafValues>
            1.1062262207269669e-01 -3.0209475755691528e-01</leafValues></_>
        <_>
          <internalNodes>
            0 -1 127 -1.6011999920010567e-02</internalNodes>
          <leafValues>
            3.2128438353538513e-01 -9.2436313629150391e-02</leafValues></_>
        <_>
          <internalNodes>
            0 -1 54 8.1721348688006401e-03</internalNodes>
          <leafValues>
            -1.5179112553596497e-01 2.4963198602199554e-01</leafValues></_>
        <_>
          <internalNodes>
            0 -1 97 2.4923161254264414e-04</internalNodes>
          <leafValues>
            9.2601127922534943e-02 -3.4552997350692749e-01</leafValues></_>
        <_>
          <internalNodes>
            0 -1 296 -2.2242898121476173e-03</internalNodes>
          <leafValues>
            2.6234138011932373e-01 -1.2683020532131195e-01</leafValues></_>
        <_>
          <internalNodes>
            0 -1 146 2.6695821434259415e-03</internalNodes>
          <leafValues>
            -1.2024476379156113e-01 2.4458259344100952e-01</leafValues></_>
        <_>
          <internalNodes>
            0 -1 215 1.5159292146563530e-02</internalNodes>
          <leafValues>
            -8.2902789115905762e-02 3.5040527582168579e-01</leafValues></_>
        <_>
          <internalNodes>
            0 -1 285 8.4936814382672310e-03</internalNodes>
          <leafValues>
            -1.0652888566255569e-01 2.7336671948432922e-01</leafValues></_>
        <_>
          <internalNodes>
            0 -1 295 2.7829890605062246e-03</internalNodes>
          <leafValues>
            6.3306763768196106e-02 -4.7474065423011780e-01</leafValues></_>
        <_>
          <internalNodes>
            0 -1 142 6.9531383924186230e-03</internalNodes>
          <leafValues>
            4.3125301599502563e-02 -6.4426350593566895e-01</leafValues></_>
        <_>
          <internalNodes>
            0 -1 526 2.6356242597103119e-03</internalNodes>
          <leafValues>
            5.4678112268447876e-02 -5.0504678487777710e-01</leafValues></_>
        <_>
          <internalNodes>
            0 -1 447 -3.6823451519012451e-03</internalNodes>
          <leafValues>
            2.2950673103332520e-01 -1.2504751980304718e-01</leafValues></_>
        <_>
          <internalNodes>
            0 -1 293 4.7949790023267269e-03</internalNodes>
          <leafValues>
            -1.0727653652429581e-01 2.5379532575607300e-01</leafValues></_>
        <_>
          <internalNodes>
            0 -1 139 -3.5274194087833166e-03</internalNodes>
          <leafValues>
            3.5218960046768188e-01 -8.2717753946781158e-02</leafValues></_>
        <_>
          <internalNodes>
            0 -1 93 1.1711895465850830e-02</internalNodes>
          <leafValues>
            -1.3413780927658081e-01 2.0886959135532379e-01</leafValues></_>
        <_>
          <internalNodes>
            0 -1 371 -2.7668951079249382e-03</internalNodes>
          <leafValues>
            -5.2585244178771973e-01 5.3682450205087662e-02</leafValues></_>
        <_>
          <internalNodes>
            0 -1 31 9.6261868020519614e-04</internalNodes>
          <leafValues>
            -1.6064490377902985e-01 1.8181778490543365e-01</leafValues></_>
        <_>
          <internalNodes>
            0 -1 485 1.5961279859766364e-04</internalNodes>
          <leafValues>
            -2.1856527030467987e-01 1.4231704175472260e-01</leafValues></_>
        <_>
          <internalNodes>
            0 -1 416 7.9310330329462886e-04</internalNodes>
          <leafValues>
            6.0146369040012360e-02 -4.7732260823249817e-01</leafValues></_>
        <_>
          <internalNodes>
            0 -1 12 2.2173441946506500e-01</internalNodes>
          <leafValues>
            -5.4755922406911850e-02 5.8518266677856445e-01</leafValues></_>
        <_>
          <internalNodes>
            0 -1 366 9.7231531981378794e-04</internalNodes>
          <leafValues>
            7.8518502414226532e-02 -4.1060286760330200e-01</leafValues></_>
        <_>
          <internalNodes>
            0 -1 413 2.8978914488106966e-03</internalNodes>
          <leafValues>
            -1.2203200906515121e-01 2.3066465556621552e-01</leafValues></_>
        <_>
          <internalNodes>
            0 -1 289 2.2127719130367041e-03</internalNodes>
          <leafValues>
            -1.3843853771686554e-01 2.2584699094295502e-01</leafValues></_>
        <_>
          <internalNodes>
            0 -1 247 -4.5591415837407112e-03</internalNodes>
          <leafValues>
            2.2180870175361633e-01 -1.3137918710708618e-01</leafValues></_>
        <_>
          <internalNodes>
            0 -1 107 -1.9235098734498024e-02</internalNodes>
          <leafValues>
            -8.3097082376480103e-01 3.2838419079780579e-02</leafValues></_>
        <_>
          <internalNodes>
            0 -1 429 -9.3534499406814575e-02</internalNodes>
          <leafValues>
            6.9978493452072144e-01 -4.8683643341064453e-02</leafValues></_>
        <_>
          <internalNodes>
            0 -1 280 -5.3966194391250610e-03</internalNodes>
          <leafValues>
            2.9217055439949036e-01 -1.0282579064369202e-01</leafValues></_>
        <_>
          <internalNodes>
            0 -1 265 -2.2801854647696018e-03</internalNodes>
          <leafValues>
            1.0663188993930817e-01 -2.7087444067001343e-01</leafValues></_>
        <_>
          <internalNodes>
            0 -1 388 2.4947397410869598e-02</internalNodes>
          <leafValues>
            -5.6209575384855270e-02 6.2471830844879150e-01</leafValues></_>
        <_>
          <internalNodes>
            0 -1 316 -1.1286600492894650e-03</internalNodes>
          <leafValues>
            -3.5366550087928772e-01 8.7379805743694305e-02</leafValues></_></weakClassifiers></_>
    <!-- stage 16 -->
    <_>
      <maxWeakCount>41</maxWeakCount>
      <stageThreshold>-1.4224202632904053e+00</stageThreshold>
      <weakClassifiers>
        <_>
          <internalNodes>
            0 -1 186 -3.5324867814779282e-02</internalNodes>
          <leafValues>
            -2.1582233905792236e-01 -6.4093816280364990e-01</leafValues></_>
        <_>
          <internalNodes>
            0 -1 483 2.1296601742506027e-02</internalNodes>
          <leafValues>
            -2.1451205015182495e-01 2.4297827482223511e-01</leafValues></_>
        <_>
          <internalNodes>
            0 -1 301 3.4808591008186340e-02</internalNodes>
          <leafValues>
            -1.7176298797130585e-01 2.2242116928100586e-01</leafValues></_>
        <_>
          <internalNodes>
            0 -1 415 8.4689341019839048e-04</internalNodes>
          <leafValues>
            -2.2580850124359131e-01 1.6767750680446625e-01</leafValues></_>
        <_>
          <internalNodes>
            0 -1 414 7.1416760329157114e-04</internalNodes>
          <leafValues>
            -8.9205332100391388e-02 2.9216590523719788e-01</leafValues></_>
        <_>
          <internalNodes>
            0 -1 158 -5.8437790721654892e-02</internalNodes>
          <leafValues>
            5.3054648637771606e-01 -6.1320573091506958e-02</leafValues></_>
        <_>
          <internalNodes>
            0 -1 214 4.2892731726169586e-03</internalNodes>
          <leafValues>
            -1.4046294987201691e-01 2.5413972139358521e-01</leafValues></_>
        <_>
          <internalNodes>
            0 -1 221 1.7269789532292634e-04</internalNodes>
          <leafValues>
            1.1364784091711044e-01 -3.3832195401191711e-01</leafValues></_>
        <_>
          <internalNodes>
            0 -1 134 -2.4020828277571127e-05</internalNodes>
          <leafValues>
            1.2982156872749329e-01 -2.6787838339805603e-01</leafValues></_>
        <_>
          <internalNodes>
            0 -1 115 -1.9069360569119453e-03</internalNodes>
          <leafValues>
            2.0951999723911285e-01 -1.6404534876346588e-01</leafValues></_>
        <_>
          <internalNodes>
            0 -1 311 2.0735790021717548e-03</internalNodes>
          <leafValues>
            9.3104496598243713e-02 -3.7202209234237671e-01</leafValues></_>
        <_>
          <internalNodes>
            0 -1 324 -7.1907257661223412e-03</internalNodes>
          <leafValues>
            2.0123593509197235e-01 -1.6873091459274292e-01</leafValues></_>
        <_>
          <internalNodes>
            0 -1 132 9.2189442366361618e-03</internalNodes>
          <leafValues>
            -1.1109905689954758e-01 2.9905420541763306e-01</leafValues></_>
        <_>
          <internalNodes>
            0 -1 262 -2.6739598251879215e-03</internalNodes>
          <leafValues>
            2.4548150599002838e-01 -1.2546381354331970e-01</leafValues></_>
        <_>
          <internalNodes>
            0 -1 321 -1.3412672560662031e-03</internalNodes>
          <leafValues>
            -3.2294675707817078e-01 9.7440764307975769e-02</leafValues></_>
        <_>
          <internalNodes>
            0 -1 468 -2.2954731321078725e-05</internalNodes>
          <leafValues>
            1.2691450119018555e-01 -2.3218105733394623e-01</leafValues></_>
        <_>
          <internalNodes>
            0 -1 518 -2.8614079928956926e-04</internalNodes>
          <leafValues>
            -3.4120467305183411e-01 8.5057906806468964e-02</leafValues></_>
        <_>
          <internalNodes>
            0 -1 229 -1.9017407298088074e-01</internalNodes>
          <leafValues>
            5.8923888206481934e-01 -5.1916226744651794e-02</leafValues></_>
        <_>
          <internalNodes>
            0 -1 187 2.0223101601004601e-03</internalNodes>
          <leafValues>
            -1.2349958717823029e-01 2.4232003092765808e-01</leafValues></_>
        <_>
          <internalNodes>
            0 -1 94 -6.8418972194194794e-02</internalNodes>
          <leafValues>
            -4.6383261680603027e-01 6.3616253435611725e-02</leafValues></_>
        <_>
          <internalNodes>
            0 -1 121 2.8783002868294716e-02</internalNodes>
          <leafValues>
            -1.3476845622062683e-01 2.5454315543174744e-01</leafValues></_>
        <_>
          <internalNodes>
            0 -1 312 3.5623894073069096e-03</internalNodes>
          <leafValues>
            7.9867988824844360e-02 -3.5701349377632141e-01</leafValues></_>
        <_>
          <internalNodes>
            0 -1 99 1.1460933834314346e-02</internalNodes>
          <leafValues>
            -1.1260628700256348e-01 2.4586652219295502e-01</leafValues></_>
        <_>
          <internalNodes>
            0 -1 58 5.3221985697746277e-02</internalNodes>
          <leafValues>
            5.7925660163164139e-02 -5.0936633348464966e-01</leafValues></_>
        <_>
          <internalNodes>
            0 -1 208 7.6727634295821190e-03</internalNodes>
          <leafValues>
            3.2448846846818924e-02 -7.0369207859039307e-01</leafValues></_>
        <_>
          <internalNodes>
            0 -1 524 -1.6599917784333229e-02</internalNodes>
          <leafValues>
            -4.6303731203079224e-01 5.0318546593189240e-02</leafValues></_>
        <_>
          <internalNodes>
            0 -1 422 -2.2753516677767038e-03</internalNodes>
          <leafValues>
            2.6930642127990723e-01 -1.0809465497732162e-01</leafValues></_>
        <_>
          <internalNodes>
            0 -1 228 -5.4642334580421448e-03</internalNodes>
          <leafValues>
            2.4682052433490753e-01 -1.2162055820226669e-01</leafValues></_>
        <_>
          <internalNodes>
            0 -1 511 2.3265449272003025e-04</internalNodes>
          <leafValues>
            8.7905101478099823e-02 -2.9422342777252197e-01</leafValues></_>
        <_>
          <internalNodes>
            0 -1 291 6.3708443194627762e-03</internalNodes>
          <leafValues>
            -5.9742122888565063e-02 4.8333120346069336e-01</leafValues></_>
        <_>
          <internalNodes>
            0 -1 472 1.9036452285945415e-03</internalNodes>
          <leafValues>
            -9.5556348562240601e-02 2.9505613446235657e-01</leafValues></_>
        <_>
          <internalNodes>
            0 -1 80 -1.0028739925473928e-03</internalNodes>
          <leafValues>
            1.4275906980037689e-01 -1.9526387751102448e-01</leafValues></_>
        <_>
          <internalNodes>
            0 -1 19 -1.7228731513023376e-01</internalNodes>
          <leafValues>
            -7.0106053352355957e-01 3.5084336996078491e-02</leafValues></_>
        <_>
          <internalNodes>
            0 -1 222 2.2493291180580854e-03</internalNodes>
          <leafValues>
            5.6404855102300644e-02 -4.3660083413124084e-01</leafValues></_>
        <_>
          <internalNodes>
            0 -1 471 6.3449228182435036e-03</internalNodes>
          <leafValues>
            -1.0838819295167923e-01 2.4430850148200989e-01</leafValues></_>
        <_>
          <internalNodes>
            0 -1 147 9.4048902392387390e-02</internalNodes>
          <leafValues>
            3.9581056684255600e-02 -7.6063138246536255e-01</leafValues></_>
        <_>
          <internalNodes>
            0 -1 457 1.5489490702748299e-02</internalNodes>
          <leafValues>
            -8.9105032384395599e-02 3.1026667356491089e-01</leafValues></_>
        <_>
          <internalNodes>
            0 -1 77 -9.9272459745407104e-02</internalNodes>
          <leafValues>
            -6.8746179342269897e-01 3.8114603608846664e-02</leafValues></_>
        <_>
          <internalNodes>
            0 -1 519 -1.7193751409649849e-02</internalNodes>
          <leafValues>
            -7.4799484014511108e-01 2.5890018790960312e-02</leafValues></_>
        <_>
          <internalNodes>
            0 -1 491 4.1591376066207886e-03</internalNodes>
          <leafValues>
            3.1503453850746155e-02 -6.3276731967926025e-01</leafValues></_>
        <_>
          <internalNodes>
            0 -1 334 -1.2823805212974548e-01</internalNodes>
          <leafValues>
            6.5300971269607544e-01 -4.3013218790292740e-02</leafValues></_></weakClassifiers></_>
    <!-- stage 17 -->
    <_>
      <maxWeakCount>51</maxWeakCount>
      <stageThreshold>-1.4634143114089966e+00</stageThreshold>
      <weakClassifiers>
        <_>
          <internalNodes>
            0 -1 382 1.6925093531608582e-01</internalNodes>
          <leafValues>
            -6.3682866096496582e-01 -2.2222222387790680e-01</leafValues></_>
        <_>
          <internalNodes>
            0 -1 125 1.9368311390280724e-02</internalNodes>
          <leafValues>
            -2.6114818453788757e-01 1.3232748210430145e-01</leafValues></_>
        <_>
          <internalNodes>
            0 -1 59 3.5515826311893761e-04</internalNodes>
          <leafValues>
            8.3235032856464386e-02 -3.6841934919357300e-01</leafValues></_>
        <_>
          <internalNodes>
            0 -1 170 -8.5549596697092056e-03</internalNodes>
          <leafValues>
            3.0065879225730896e-01 -9.1272354125976563e-02</leafValues></_>
        <_>
          <internalNodes>
            0 -1 70 -1.1499026790261269e-02</internalNodes>
          <leafValues>
            2.4959066510200500e-01 -1.3024070858955383e-01</leafValues></_>
        <_>
          <internalNodes>
            0 -1 346 8.5986927151679993e-03</internalNodes>
          <leafValues>
            -1.6296948492527008e-01 1.9429473578929901e-01</leafValues></_>
        <_>
          <internalNodes>
            0 -1 240 -2.3182004690170288e-02</internalNodes>
          <leafValues>
            3.2072144746780396e-01 -1.0008833557367325e-01</leafValues></_>
        <_>
          <internalNodes>
            0 -1 331 2.7838654816150665e-02</internalNodes>
          <leafValues>
            -1.6168785095214844e-01 1.7449764907360077e-01</leafValues></_>
        <_>
          <internalNodes>
            0 -1 112 2.9352721758186817e-03</internalNodes>
          <leafValues>
            -1.4582610130310059e-01 2.0898489654064178e-01</leafValues></_>
        <_>
          <internalNodes>
            0 -1 450 -2.7964806184172630e-02</internalNodes>
          <leafValues>
            3.0957815051078796e-01 -8.1260785460472107e-02</leafValues></_>
        <_>
          <internalNodes>
            0 -1 103 -2.5395973352715373e-04</internalNodes>
          <leafValues>
            1.1909803003072739e-01 -2.1983936429023743e-01</leafValues></_>
        <_>
          <internalNodes>
            0 -1 198 6.7109921947121620e-03</internalNodes>
          <leafValues>
            -8.6537249386310577e-02 3.1003659963607788e-01</leafValues></_>
        <_>
          <internalNodes>
            0 -1 199 2.6821848005056381e-02</internalNodes>
          <leafValues>
            -7.7118866145610809e-02 3.4524595737457275e-01</leafValues></_>
        <_>
          <internalNodes>
            0 -1 102 9.7708392422646284e-04</internalNodes>
          <leafValues>
            -1.6640946269035339e-01 2.1828414499759674e-01</leafValues></_>
        <_>
          <internalNodes>
            0 -1 428 -6.4819457475095987e-04</internalNodes>
          <leafValues>
            2.0251387357711792e-01 -1.2572546303272247e-01</leafValues></_>
        <_>
          <internalNodes>
            0 -1 434 3.2172629289561883e-05</internalNodes>
          <leafValues>
            9.3781292438507080e-02 -2.5869876146316528e-01</leafValues></_>
        <_>
          <internalNodes>
            0 -1 432 3.6806662683375180e-04</internalNodes>
          <leafValues>
            9.0410873293876648e-02 -2.9467543959617615e-01</leafValues></_>
        <_>
          <internalNodes>
            0 -1 9 -4.5664811134338379e-01</internalNodes>
          <leafValues>
            -7.6053017377853394e-01 3.1708322465419769e-02</leafValues></_>
        <_>
          <internalNodes>
            0 -1 503 9.3420513439923525e-04</internalNodes>
          <leafValues>
            6.4693465828895569e-02 -3.4347867965698242e-01</leafValues></_>
        <_>
          <internalNodes>
            0 -1 233 -7.6385901775211096e-04</internalNodes>
          <leafValues>
            2.2058926522731781e-01 -1.1570026725530624e-01</leafValues></_>
        <_>
          <internalNodes>
            0 -1 266 1.2130574323236942e-03</internalNodes>
          <leafValues>
            -7.0152312517166138e-02 3.9673867821693420e-01</leafValues></_>
        <_>
          <internalNodes>
            0 -1 5 1.0835987050086260e-03</internalNodes>
          <leafValues>
            8.8106207549571991e-02 -3.2366034388542175e-01</leafValues></_>
        <_>
          <internalNodes>
            0 -1 181 1.4081913104746491e-04</internalNodes>
          <leafValues>
            -1.9353517889976501e-01 1.2117563933134079e-01</leafValues></_>
        <_>
          <internalNodes>
            0 -1 139 3.9303242228925228e-03</internalNodes>
          <leafValues>
            -8.0658815801143646e-02 2.9841169714927673e-01</leafValues></_>
        <_>
          <internalNodes>
            0 -1 48 -2.1172719425521791e-04</internalNodes>
          <leafValues>
            -2.6116186380386353e-01 8.7612092494964600e-02</leafValues></_>
        <_>
          <internalNodes>
            0 -1 44 1.5900694415904582e-04</internalNodes>
          <leafValues>
            9.1997966170310974e-02 -2.6537621021270752e-01</leafValues></_>
        <_>
          <internalNodes>
            0 -1 36 -5.2316412329673767e-03</internalNodes>
          <leafValues>
            2.1882915496826172e-01 -1.1292316764593124e-01</leafValues></_>
        <_>
          <internalNodes>
            0 -1 164 2.7756895869970322e-03</internalNodes>
          <leafValues>
            -8.0680929124355316e-02 3.2228672504425049e-01</leafValues></_>
        <_>
          <internalNodes>
            0 -1 288 6.2938332557678223e-02</internalNodes>
          <leafValues>
            4.3789993971586227e-02 -5.5581450462341309e-01</leafValues></_>
        <_>
          <internalNodes>
            0 -1 339 -9.8589919507503510e-03</internalNodes>
          <leafValues>
            2.4325460195541382e-01 -9.5657043159008026e-02</leafValues></_>
        <_>
          <internalNodes>
            0 -1 523 3.9882306009531021e-04</internalNodes>
          <leafValues>
            7.5943641364574432e-02 -3.6738315224647522e-01</leafValues></_>
        <_>
          <internalNodes>
            0 -1 345 -2.8359417337924242e-03</internalNodes>
          <leafValues>
            2.2165299952030182e-01 -1.1094635725021362e-01</leafValues></_>
        <_>
          <internalNodes>
            0 -1 291 -3.3491016365587711e-03</internalNodes>
          <leafValues>
            2.7423578500747681e-01 -8.8444955646991730e-02</leafValues></_>
        <_>
          <internalNodes>
            0 -1 213 -1.1652005836367607e-02</internalNodes>
          <leafValues>
            -5.5983626842498779e-01 4.4294945895671844e-02</leafValues></_>
        <_>
          <internalNodes>
            0 -1 465 1.2246186379343271e-03</internalNodes>
          <leafValues>
            -1.0200899094343185e-01 2.4013243615627289e-01</leafValues></_>
        <_>
          <internalNodes>
            0 -1 245 8.4246173501014709e-03</internalNodes>
          <leafValues>
            3.9019737392663956e-02 -6.0948097705841064e-01</leafValues></_>
        <_>
          <internalNodes>
            0 -1 218 -1.4045161660760641e-03</internalNodes>
          <leafValues>
            2.0049071311950684e-01 -1.1679382622241974e-01</leafValues></_>
        <_>
          <internalNodes>
            0 -1 484 1.7399389762431383e-03</internalNodes>
          <leafValues>
            -9.6056036651134491e-02 2.4456371366977692e-01</leafValues></_>
        <_>
          <internalNodes>
            0 -1 377 1.2261520605534315e-03</internalNodes>
          <leafValues>
            -9.8844096064567566e-02 2.4386759102344513e-01</leafValues></_>
        <_>
          <internalNodes>
            0 -1 494 6.5525746904313564e-03</internalNodes>
          <leafValues>
            -1.8670754134654999e-01 1.2636922299861908e-01</leafValues></_>
        <_>
          <internalNodes>
            0 -1 256 2.3074825294315815e-03</internalNodes>
          <leafValues>
            4.6106513589620590e-02 -4.6987709403038025e-01</leafValues></_>
        <_>
          <internalNodes>
            0 -1 236 -2.4874068796634674e-02</internalNodes>
          <leafValues>
            3.9819917082786560e-01 -6.2635637819766998e-02</leafValues></_>
        <_>
          <internalNodes>
            0 -1 200 3.3318668603897095e-02</internalNodes>
          <leafValues>
            -4.2689491063356400e-02 5.4467529058456421e-01</leafValues></_>
        <_>
          <internalNodes>
            0 -1 452 -2.2997807711362839e-02</internalNodes>
          <leafValues>
            2.0967255532741547e-01 -1.1585636436939240e-01</leafValues></_>
        <_>
          <internalNodes>
            0 -1 491 1.0564023796177935e-05</internalNodes>
          <leafValues>
            -2.1302188932895660e-01 1.0847715288400650e-01</leafValues></_>
        <_>
          <internalNodes>
            0 -1 424 -1.0215505026280880e-03</internalNodes>
          <leafValues>
            3.4180024266242981e-01 -7.4849501252174377e-02</leafValues></_>
        <_>
          <internalNodes>
            0 -1 499 -3.6745646502822638e-04</internalNodes>
          <leafValues>
            -4.4071295857429504e-01 5.5516742169857025e-02</leafValues></_>
        <_>
          <internalNodes>
            0 -1 274 -4.0350630297325552e-04</internalNodes>
          <leafValues>
            -2.3407071828842163e-01 1.0358572006225586e-01</leafValues></_>
        <_>
          <internalNodes>
            0 -1 179 2.4182512424886227e-03</internalNodes>
          <leafValues>
            -1.1163552850484848e-01 2.2439356148242950e-01</leafValues></_>
        <_>
          <internalNodes>
            0 -1 169 -1.8647866090759635e-03</internalNodes>
          <leafValues>
            2.5157904624938965e-01 -1.0920745134353638e-01</leafValues></_>
        <_>
          <internalNodes>
            0 -1 329 -6.3965632580220699e-03</internalNodes>
          <leafValues>
            2.6893976330757141e-01 -9.9160529673099518e-02</leafValues></_></weakClassifiers></_>
    <!-- stage 18 -->
    <_>
      <maxWeakCount>50</maxWeakCount>
      <stageThreshold>-1.3945292234420776e+00</stageThreshold>
      <weakClassifiers>
        <_>
          <internalNodes>
            0 -1 389 1.9211378693580627e-01</internalNodes>
          <leafValues>
            -5.9298777580261230e-01 -2.2203098237514496e-01</leafValues></_>
        <_>
          <internalNodes>
            0 -1 475 -3.3467654138803482e-02</internalNodes>
          <leafValues>
            2.6271548867225647e-01 -1.7219170928001404e-01</leafValues></_>
        <_>
          <internalNodes>
            0 -1 24 -9.1060966253280640e-02</internalNodes>
          <leafValues>
            1.8233484029769897e-01 -1.7940452694892883e-01</leafValues></_>
        <_>
          <internalNodes>
            0 -1 42 -1.9283252186141908e-04</internalNodes>
          <leafValues>
            -2.8366312384605408e-01 1.0994913429021835e-01</leafValues></_>
        <_>
          <internalNodes>
            0 -1 41 3.2058131182566285e-04</internalNodes>
          <leafValues>
            1.1722035706043243e-01 -2.8716424107551575e-01</leafValues></_>
        <_>
          <internalNodes>
            0 -1 354 1.1818115599453449e-03</internalNodes>
          <leafValues>
            -1.2971895933151245e-01 2.1445001661777496e-01</leafValues></_>
        <_>
          <internalNodes>
            0 -1 205 8.3381794393062592e-03</internalNodes>
          <leafValues>
            -1.8611691892147064e-01 1.5916675329208374e-01</leafValues></_>
        <_>
          <internalNodes>
            0 -1 522 -7.2166993049904704e-05</internalNodes>
          <leafValues>
            -3.0838003754615784e-01 9.4238698482513428e-02</leafValues></_>
        <_>
          <internalNodes>
            0 -1 394 8.1475283950567245e-03</internalNodes>
          <leafValues>
            1.2014737725257874e-01 -2.0758955180644989e-01</leafValues></_>
        <_>
          <internalNodes>
            0 -1 290 1.2713174801319838e-03</internalNodes>
          <leafValues>
            -1.6119994223117828e-01 1.4750009775161743e-01</leafValues></_>
        <_>
          <internalNodes>
            0 -1 238 1.2444439926184714e-04</internalNodes>
          <leafValues>
            9.2261828482151031e-02 -2.5106081366539001e-01</leafValues></_>
        <_>
          <internalNodes>
            0 -1 88 1.1863177642226219e-03</internalNodes>
          <leafValues>
            -9.8514400422573090e-02 2.7336481213569641e-01</leafValues></_>
        <_>
          <internalNodes>
